6
7
13
12
5
5
2
5
6
6
10
10
-63
-135
-339
-338
-104
-209
-532
-531
5
11
16
20
3
5
1
4
7
14
27
28
6
12
25
22
-71
-139
-359
-359
4
7
15
13
-124
-254
-641
-641
5
5
12
11
-50
-107
-269
-269
-97
-194
-486
-485
-67
-143
-359
-359
3
1
1
3
2
3
2
5
5
9
15
15
5
5
10
6
-106
-213
-536
-535
-83
-166
-422
-423
-112
-232
-582
-582
7
14
28
28
-121
-248
-625
-626
7
11
28
27
6
9
12
13
3
5
6
9
8
15
30
30
-90
-181
-459
-458
6
9
14
13
5
10
25
23
9
12
30
26
-76
-153
-392
-392
4
9
20
18
9
10
22
25
-131
-267
-666
-665
-102
-207
-520
-520
-61
-122
-308
-309
6
3
8
6
-68
-143
-359
-358
7
14
30
28
-71
-142
-358
-358
7
6
11
14
-71
-141
-359
-357
8
15
28
28
6
7
11
11
3
7
8
6
3
4
9
8
-96
-191
-484
-480
10
14
29
30
-93
-195
-489
-488
7
14
27
29
6
14
26
30
-74
-148
-376
-377
2
4
2
3
-91
-183
-467
-465
-100
-201
-508
-505
-108
-218
-546
-547
8
7
20
16
-75
-156
-395
-396
-71
-143
-368
-369
6
11
18
18
7
9
19
18
4
7
9
6
-89
-183
-459
-458
2
7
7
8
-113
-229
-579
-575
-70
-146
-374
-372
-66
-130
-334
-333
8
12
30
28
-76
-152
-383
-381
-58
-119
-309
-309
6
7
15
14
6
6
6
6
8
14
30
28
7
12
21
22
-133
-268
-676
-676
-93
-193
-485
-486
4
7
7
8
-104
-213
-538
-536
-85
-171
-426
-427
-88
-183
-457
-456
4
6
7
10
5
10
19
19
-102
-206
-523
-521
5
10
21
25
3
3
2
5
-103
-211
-532
-533
-113
-229
-576
-578
2
3
7
6
-108
-222
-556
-557
-107
-214
-542
-540
9
12
30
30
-92
-189
-471
-474
-106
-219
-545
-545
-108
-213
-542
-542
5
9
17
20
8
13
22
23
5
3
5
2
-121
-245
-618
-615
6
14
26
30
-80
-169
-422
-423
-86
-171
-436
-436
9
14
30
30
9
13
25
22
-97
-191
-488
-487
3
9
15
11
4
4
2
1
3
8
12
14
5
5
9
10
-95
-195
-498
-497
5
5
4
3
9
15
30
29
-85
-171
-432
-432
-113
-233
-580
-581
5
7
8
8
5
9
14
13
-98
-202
-512
-512
-75
-154
-394
-393
5
2
2
4
-72
-150
-382
-382
4
9
17
18
5
8
17
16
-82
-166
-417
-415
-109
-222
-555
-556
-124
-255
-635
-636
-86
-169
-430
-431
7
12
26
27
6
8
20
19
